0
128 -4.537190749193366 -2.5141853383754453 0.2530416149365289 -4.292414913400144 4.9213297059557926
108 -2.1432462978255584 -0.04866934245584709 -3.1940924065116105 -4.939329778753193 5.446757464564933
100 -4.02230460853246 -1.7079909948821967 -4.120683757274532 -1.706949103070369 9.209116939855544
89 -3.815685373526516 -0.7495697882767294 -0.9545627427808245 1.391550591013191 16.26087836826593
86 -4.460336394624508 -1.1039403934936742 -2.445204860353977 0.1923567654947025 17.90844305807503
81 -2.861226581917724 -2.577562447076173 -2.9667314276113252 -3.495683266258883 3.150444912818322
64 -3.347467031009481 -0.6924810564969128 -4.621883837949714 -0.5876469606546264 15.222622405874464
61 -2.1423067832454334 -3.141561355755804 1.7815933392064593 -4.76407515320037 9.665457307770989
58 -1.635175359744104 -1.8227210766097848 -3.927261022093095 -2.439193156915649 0.19988689466864606
55 -3.1390247151677784 -3.50295780328171 0.29420799894283967 -3.7771991615563416 0.25717975462727916
51 -3.813739317294461 -3.9333350523473385 3.8398337349204645 -4.454950181129783 9.702254423406151
39 -4.480630860566002 -3.441803744605717 3.138976334699498 -2.2079392462802048 16.75228386958998
33 -4.122407664887663 -2.780140581543117 -3.641623812453391 -0.34639128390204554 13.98052656222507
33 -1.9534627166093257 -4.577806407694326 -0.4718919957578285 -4.150768800379378 19.926977543769087
29 -2.864135919471882 -3.2842405906053407 0.5916168350118332 -2.43288868728707 6.326646099843323
25 -4.774742480207398 -0.5650812582693483 0.9025650744634302 -4.228220417819982 8.9646998580777
19 -2.1766046740303393 -4.021623639205137 2.8765893985604594 -1.5039277263718942 8.165794584524086
16 -0.4760256890186332 -3.8130849853001667 -3.4977673958601105 -3.2258469864744876 18.320636801120393
15 -1.7692520453373417 -4.266809997011264 -2.703529699717425 -0.5725294101557985 12.8561475278489
15 -2.2588715988477825 -3.222346261618304 -3.00032642401192 -0.14875419903864184 11.203154616401713
14 -0.8562540002093 -3.8254160093774114 -4.043498152783642 -1.7481694067680573 11.041719057534731
14 0.41081551013616124 -2.400180718096334 0.2825507927729447 -2.094107768550878 8.634766886855974
13 -0.8964887675018618 -2.7534455460477893 2.2408795259248873 -0.7257505164731075 13.620714806239206
12 -3.831144293901234 -3.2076190546773917 -4.964591638603444 3.8200827268516058 16.27261605287905
12 -1.328910280095693 -1.2814484312484842 -4.430151547539128 0.7796595148869265 16.09010892041969
12 -2.071307390482837 -1.6151897670101354 -2.115643659229299 1.8249460302651679 16.83374393491931
12 -0.8937599905321294 -2.3174478369716587 -2.321718279302185 -0.866712325252168 7.120000835259351
11 -1.1897555559384076 -3.5529504727195937 2.8454295835291843 -0.47156034737602415 4.8238912280229895
11 0.40021605868040844 -1.2404540151798713 3.7672708232467276 -2.0945501241859277 18.72319342071159
11 -4.17585113053815 -3.0587816823089744 1.1395612845493073 2.973655037373466 4.346552208785277
10 -2.4231168458750165 -4.106443150525228 -1.4538834967987646 1.8411967404432508 18.866581592844124
10 -3.135175047801928 -2.5730811713248913 3.5237345528063173 -2.188861970812317 9.623888029282243
10 -2.2786094988543146 -0.5824050815340147 4.180024038252208 -4.107518171177885 0.25638918759027574
9 -1.6279999784151578 0.18737513521145566 -4.050240199209858 -1.7036097553495178 1.425131793174601
8 -0.6980179466246463 -1.9266918662477162 -2.3648708935439378 0.5955385023502195 6.991654932799031
8 -1.520540912374476 -1.1600156292208261 3.1947897997319945 -4.265027238917986 13.546908978557058
8 -0.5758302605855734 -4.269606525356529 -0.7900935633998518 -1.5789787920400622 0.07708590509989177
7 -0.13097988790887083 -0.8891104845180369 1.8551587961734395 -2.543919259476133 12.198320253339583
6 -1.0742330605096981 -4.83338754944521 -3.796603926172878 1.1869963383230653 16.071485819629928
6 -4.300143994822424 0.1443433490216659 -2.181716650935975 -1.1610147883941968 11.330760673488406
6 -3.5913907078604748 -2.8350132573777898 4.124020429280511 -0.5718620271995185 7.334755641719215
5 -3.1163232373911454 -1.1463664490753631 2.2793630323245972 0.08002370270184489 15.927668537167662
4 -0.06315656355694532 -3.519123534362688 0.27518050903144164 -0.6482563185470003 6.930823196241556
4 1.0653296490869693 0.8028035860294196 -4.856060675932474 -3.6694368267105704 16.204102756288798
3 0.9742198122375871 -4.328739495251056 -2.429774883543393 -2.33163989305519 4.709479190895047
1 0.025016643709308006 -4.302483571298339 0.7874449854647727 0.24845673808262525 13.951273436330354
1 1.0300079628824985 -1.7925010496524751 -1.8298517528054092 -2.380106054716734 3.7680387678240845
0 0.6558633276799526 -1.3994753737302457 1.7085349799178164 -0.9664172168147687 3.1461156376328736
0 3.0234154389303782 -4.511320588379172 -2.544795548450894 3.9150984922934313 10.73187920155826
0 2.122422677749914 1.9147814901748905 2.9077637460410557 -2.4733456792690136 16.3156371310351
0 0.27517879067298523 -4.561598970393432 -0.2209312589035548 0.15304419334842034 4.715851181851005
0 -3.8151907205869264 3.6184211762558434 0.7108924678377528 1.240867436241765 0.4647185767046058
0 -4.238923714289328 1.246405169512844 3.3764383499184714 2.6423021656771715 14.125431292834701
0 3.3422009814158997 -0.08511087050528854 4.233047358085159 -1.001548070849796 5.25225872132234
0 1.0220151818918595 1.3072218633601862 -2.7449541314493398 2.8839177838336116 5.950152861428418
0 0.030389458550836856 2.6271770140304245 -2.6992605679280968 -1.964438144213232 2.6482860574070233
0 -4.178717092415614 3.731175649150776 -0.6620079660426352 -0.10958497692729274 5.3056988532138005
0 -4.952270805645118 3.996134166793011 4.5521533807645405 1.1148114380910386 2.4232610951466893
0 2.3910268844003717 -2.884762604595539 1.6098983837315917 2.775397950702817 18.11315711792451
0 2.535968501964737 -4.759685801280957 -2.02035009121617 4.056279450972699 18.760840117970343
0 2.8757345460472594 2.1960720953152606 -2.105955331775058 -4.181960047147966 16.056479708728
0 3.784394699211692 2.190715015112482 -0.7027377066272802 4.186001538145685 10.929871412749366
0 2.643764241719645 4.843884526449932 -3.4484731634729506 -3.055612314313436 12.050626115084153
0 -0.5294996417462254 -2.728231530100361 4.542862566291845 -0.992103827946389 18.296685118348247
0 -4.41187375714557 0.325659228565919 3.6981324535412714 -4.585876688923952 18.893832267953027
0 3.377945940963814 -0.9591947519771775 1.6168955424922151 -2.246039167695588 15.324720803219552
0 4.438627835551079 1.9537165457670582 1.9291037821955728 0.540783771878603 7.290214810853081
0 0.6935666391828956 -2.231397433196385 -0.7681566324724276 3.3329587435045944 15.244597099751193
0 -1.1761690946981518 1.5894889586859131 -2.1150703432114124 2.4395379033636058 8.264375371639812
0 -0.5492955733994389 3.8741529287503713 -0.45448695814299533 -1.1183405811607527 0.9540478563007238
0 -0.9708414522166011 4.173391006990734 1.457976897392527 3.2076739778090637 16.467844410275745
0 -3.1072170658688503 4.6650255329018595 -1.1755062228826887 -3.582009342081822 0.34006367930004666
0 -1.7364154886130168 1.2683465399241554 3.162430163335518 -2.405285782705755 13.950862268554246
0 2.551802588939128 0.38054391971920154 2.3681226962758952 1.6642963093141274 8.76093471443738
0 2.5280120068668746 1.698321343713408 -3.467888617695265 0.5253919630316872 16.910607557364685
0 0.06293327500988966 1.8027799870503767 2.087253389271596 1.7321329876114389 15.370269103477261
0 -2.380036244985122 1.8464355446852743 -4.5818444827652645 -2.7471617551135497 6.463429629356934
0 1.751001985984935 -2.5048596091575215 1.6617551121226724 -1.0827863841508534 12.502170687097752
0 -0.2875863608462801 -3.7650200810052925 -3.042200955953799 2.597844496425907 5.781989940611316
0 -2.4739109223828235 0.39168347538295833 3.0246682337583515 -1.7652881278531742 6.18100803303135
0 0.11406832042941062 -2.568844042481687 -3.557652657609305 4.051406457699311 17.664627458106594
0 1.820903228743754 3.780219786016316 -2.0997738879491745 3.7403350262176627 19.8791214594641
0 -1.8120023482195977 2.842068965601112 0.9454398026378286 -0.9021551525073503 4.354691096557604
0 -0.6373034003586922 1.5613661643539043 -1.4633314893660945 4.542198026234413 15.786377651609438
0 -0.5369236254591154 1.5790182656742244 2.912073078411426 -2.6725044853702693 19.528812439388098
0 1.0154821287571085 -1.32585244116586 -3.7358814742286217 4.001150814384928 12.175656100022323
0 1.0180557909271348 -1.8652133363415127 -2.9491735378467787 4.984737875899169 0.27610857935209454
0 4.1379567643284805 4.288642506545543 4.8848972875277425 1.4452162187786062 6.2268646184177046
0 -3.1764146266868454 0.4947028789068071 2.930080228985812 -2.6242582711698015 13.645949701478626
0 -0.3081257190250133 4.247226336400264 -2.9853482301313807 2.468562300387756 1.8356706918187538
0 -3.5467815966670635 4.58783093796279 1.3748614922247722 0.6122911145978085 17.029608010289273
0 -2.1519588430454206 4.6721575421843795 -4.915102697199193 -0.18561875969446007 0.10111994504043986
0 0.2811737070125728 -3.7978442858197448 -3.638535452604467 4.578950595679368 19.419373328551487
0 0.15983908325748786 0.6565471913259575 0.2682772038097987 -1.8741749484968673 15.270702873026853
0 0.4861035996138474 1.2497134404557233 3.838541067258191 -2.880795683846895 11.14531695031112
0 1.3905717934499222 3.4514861135326527 2.697597964384607 -4.283572945487743 10.272174422146719
0 -3.807221195853753 2.2247204268993626 4.0061772441989945 2.618677394081704 16.21254873447806
0 3.4656832702313025 3.2976363180805865 -4.615117445292267 0.7942224731222165 19.958547085994343
0 -3.0621329776019754 4.13943015553806 2.4193788050746514 0.8532653657297811 19.646821856391846
0 4.383079060529461 -1.8176608013038709 -0.37044850791909667 -1.653377360404967 11.857918486099626
0 3.759715459120784 0.3149913724343154 -3.5531493458662347 2.5372406475193756 12.255118723964415
0 -0.08537163764686007 4.421480870744112 2.3609052756816524 -0.1827332043199945 1.4925603972837664
0 -4.387917294369879 1.585167329917578 -0.8530507391073243 4.828993674544508 6.419500999443115
0 -1.828084824354712 1.5332143541609122 4.154381152672661 -2.2590881755041314 1.8283667490836297
0 2.032852384733398 3.657664535812753 4.277457011491553 3.8070618116931616 12.387186506031032
0 4.902547766343346 1.6696707894056626 -2.9839857946456205 -3.491487311533379 12.80187388854834
0 -4.223396693174307 1.0194730148946496 1.9650106105901965 -3.4442723896888925 15.103149068700697
0 4.776528258451053 2.6936020232703886 3.763436679812827 4.45866399149914 18.74914040588019
0 -1.815920893914523 1.8433333013519917 3.389660942729879 -0.9901469927132673 11.063428405244624
0 -4.705973284085022 -1.9592219413404175 4.371270681064063 4.50591091991943 4.412991651907452
0 4.629136583421493 1.7407001408951075 -3.685889562862191 0.4148419693390064 17.969755624820827
0 1.7693475068883835 -4.641736972080956 1.9192282504659595 2.2612671721525057 13.66275457738465
0 2.731820713322004 0.8072460621377884 -4.698549376805511 -0.5382214460103105 15.9799514842009
0 4.941437398034628 1.671436452572319 0.16762559541301325 -1.6962163408123363 9.38249888655211
0 -4.961269253486902 0.8640515720028379 4.7101674988894064 -1.431640873159712 3.377000902895475
0 -0.17399542129826884 2.914276438406331 -4.11242543380013 -3.801187989469794 11.148600700653317
0 3.994846544676143 -4.072506589894261 3.97031935504169 -2.1335561964110816 18.636574456602336
0 3.3483030860479026 4.042099299528028 -3.7228575300430733 1.9848000445574971 2.939630845731076
0 3.7844670387951336 1.1873480003301404 1.1431638212975939 -4.715495217069824 12.94615973135711
0 2.184395124500914 3.7615277629632846 4.2301294085250145 -1.9295141988015239 17.776358656439516
0 -4.1125627962146885 2.9963603272440844 -1.7189156475286471 -2.3822435617947066 4.8576613363981895
0 2.179230527412326 -4.140469145916068 -3.5111852603565774 4.843074915720955 19.83943187654172
0 -1.0596697605359373 0.8266630139373561 1.7394466204488923 0.23288395455070088 12.18240648850841
0 0.5854905937679264 -2.221633537982708 -4.830299364420636 2.96087821357652 8.28909953120885
0 1.6868851425961209 -1.0896981571003241 -2.5074399450994775 -2.19421503385162 6.877042399077215
0 0.016977271388032733 3.3146209789019174 -2.1156728580040363 -2.3387865877429714 9.623121393308185
0 -0.059987850382480445 1.517554363815064 -0.8410924690425112 1.7809352316540847 15.622917502894861
0 1.481387390293646 2.7132820427664175 -2.4496505510543787 1.5655417081078085 8.692801186439102
0 3.4928218631772303 -3.5622091504829134 1.8126060518000315 3.3082792947302444 9.203049233259911
0 -0.29894936239118675 4.452983416789266 4.89867895138951 -1.6133865759159072 17.484503158477672
0 2.498665370840401 -3.763679735817178 0.13248091844646925 -4.162510673664862 12.568839945492634
0 1.070311443750862 -4.804092606608862 -2.4686944741935 1.9790426471329914 3.050086419199922
0 -1.6066657892584137 3.634547932910303 3.2505019608929793 -1.7170456663700708 18.43869094881756
0 1.6558276084233121 0.4728463929878455 -3.6336995657307236 -0.36432547452844943 17.764201857687137
0 4.854042164723381 0.19967113144455872 0.054611431670080535 2.532267727433087 14.298706874164107
0 -3.5161075604324887 0.465359192060677 -1.8590760906977133 -2.9544801038923185 17.938562693479298
0 2.0055427816845306 -1.2624397048931324 1.9975602652949975 0.028916782466219537 12.692692690964343
0 2.3889152213620832 1.1311269436350235 4.207511178730915 4.113311826664864 8.728369445940453
0 3.806128668166904 -4.873887866133479 2.14885141366695 3.48008656736663 5.601387320645676
0 1.0558151104969582 -4.847795935184997 3.383754668175081 4.557166196110174 7.958714493002934
0 4.642497490772866 3.487620580640483 -4.984307586130439 0.4684599465922812 12.896785921001614
0 3.247237136209108 -0.6085911842855278 -2.730378545665703 -3.777091731839526 7.081793420289497
0 1.9948635968850503 -0.19304368887734213 0.2219395565647151 -2.792080956118226 0.03794483753855493
0 1.1268327324794445 0.5869305469906774 -0.8599422177187162 1.7817662830037104 7.863955860067609
0 3.997890162124323 -1.166787791195171 0.2940246224774956 1.4793182777569633 18.636802210920184
0 -0.08718589262980458 -0.6331067485912376 0.14087023054033665 1.4832376947147683 16.10561321154386
0 1.1369784905838376 -1.8493161152979019 -3.5246604394886907 -1.010917973801134 2.508747776052722
0 -3.925756072259796 1.65813697428713 3.5369053871672023 -0.3107484859874434 1.4949279343255029
0 2.5682629062038487 4.54792880828588 -4.447904473012505 -4.425018955181816 14.48880501645248
0 -2.333764743845305 1.3246132011497167 -4.717463355677522 0.7012238903377144 17.458349758665598
-1 -2.1766046740303393 0.8028035860294196 -4.856060675932474 -3.6694368267105704 16.204102756288798
-1 -0.8964887675018618 -2.7534455460477893 2.2408795259248873 -0.7257505164731075 0.25638918759027574
-1 -2.071307390482837 -1.6151897670101354 -2.115643659229299 1.8249460302651679 3.1461156376328736
-1 -4.460336394624508 -3.141561355755804 1.7815933392064593 -4.76407515320037 9.665457307770989
-1 -2.277195022203796 -3.8130849853001667 -2.181716650935975 -1.1610147883941968 11.330760673488406
-1 -1.9534627166093257 -4.577806407694326 2.8765893985604594 -1.5039277263718942 8.165794584524086
-1 0.27517879067298523 -4.561598970393432 -0.2209312589035548 0.15304419334842034 4.715851181851005
-1 -3.1390247151677784 -4.338175728186376 3.8398337349204645 -4.454950181129783 9.702254423406151
-1 0.6558633276799526 -1.3994753737302457 1.9346496995489457 -0.9664172168147687 3.1461156376328736
-1 -3.1072170658688503 4.6650255329018595 -1.1755062228826887 -3.582009342081822 15.370269103477261
-1 -2.4231168458750165 -4.302483571298339 0.7874449854647727 0.24845673808262525 13.951273436330354
-1 0.025016643709308006 -4.302483571298339 0.7874449854647727 0.24845673808262525 13.951273436330354
-1 -1.328910280095693 -1.2814484312484842 -4.430151547539128 0.7796595148869265 12.198320253339583
-1 -2.1766046740303393 -4.021623639205137 2.2408795259248873 -0.7257505164731075 15.201908303774285
-1 1.0300079628824985 -1.7925010496524751 -1.8298517528054092 -2.380106054716734 3.7680387678240845
-1 0.40021605868040844 -1.2404540151798713 3.7672708232467276 0.15304419334842034 4.715851181851005
-1 -3.813739317294461 -4.334003509467722 3.8398337349204645 -4.454950181129783 9.702254423406151
-1 -4.02230460853246 -1.7079909948821967 -4.120683757274532 -2.0945501241859277 18.72319342071159
-1 -3.1390247151677784 -3.218407220396497 0.29420799894283967 -3.7771991615563416 0.25717975462727916
-1 -3.815685373526516 -0.7495697882767294 -0.9545627427808245 -0.14875419903864184 11.203154616401713
-1 -2.1432462978255584 -0.04866934245584709 -3.1940924065116105 4.051406457699311 16.359831618389286
-1 -0.4760256890186332 -3.8130849853001667 4.233047358085159 -1.1927830410699256 5.25225872132234
-1 -3.135175047801928 -2.5730811713248913 3.5237345528063173 -2.188861970812317 9.623888029282243
-1 -2.1423067832454334 -3.141561355755804 1.7815933392064593 1.8411967404432508 18.866581592844124
-1 -2.1766046740303393 -4.021623639205137 2.8765893985604594 -1.5039277263718942 8.165794584524086
-1 -4.122407664887663 -2.780140581543117 -3.641623812453391 -1.5789787920400622 0.07708590509989177
-1 -4.122407664887663 -3.2842405906053407 0.5916168350118332 -4.881405202132183 4.19132378627215
-1 -3.831144293901234 -3.2076190546773917 -2.321718279302185 -0.866712325252168 7.120000835259351
-1 -0.8562540002093 -3.8254160093774114 -4.043498152783642 -1.7481694067680573 4.346552208785277
-1 -4.460336394624508 -1.1039403934936742 -2.445204860353977 0.1923567654947025 0.25717975462727916
-1 -2.1432462978255584 -0.04866934245584709 0.5916168350118332 -2.43288868728707 6.326646099843323
-1 -3.815685373526516 -0.7495697882767294 -2.0032074956496904 3.136240362835113 0.25717975462727916
-1 -4.774742480207398 -2.728231530100361 4.542862566291845 -1.1738442800654978 18.296685118348247
-1 -3.815685373526516 -3.2842405906053407 0.5916168350118332 -2.43288868728707 6.326646099843323
-1 -0.08537163764686007 4.421480870744112 2.3609052756816524 -0.1827332043199945 4.412991651907452
-1 -1.0860264960305388 -2.3174478369716587 -2.321718279302185 -0.35903708837568615 9.044060244395636
-1 -2.1766046740303393 -4.021623639205137 2.8765893985604594 -3.582009342081822 0.34006367930004666
-1 -4.02230460853246 -1.7079909948821967 3.138976334699498 -2.2079392462802048 18.452246457863595
-1 -2.1432462978255584 -0.04866934245584709 -3.1940924065116105 -4.939329778753193 16.83374393491931
-1 -1.328910280095693 -1.2814484312484842 1.6168955424922151 -2.0248278497522354 15.324720803219552
-1 -0.4760256890186332 -3.8130849853001667 -3.4977673958601105 -3.2258469864744876 18.320636801120393
-1 -1.520540912374476 0.8028035860294196 -4.856060675932474 -3.6694368267105704 16.204102756288798
-1 -1.7692520453373417 -4.266809997011264 -2.703529699717425 -0.5725294101557985 3.1461156376328736
-1 -4.537190749193366 -2.5141853383754453 0.2530416149365289 -4.292414913400144 16.26087836826593
-1 -4.17585113053815 -1.618103037581565 1.1395612845493073 -4.181960047147966 16.056479708728
-1 -2.1423067832454334 -3.141561355755804 1.7815933392064593 -0.992103827946389 18.296685118348247
-1 -4.537190749193366 -2.5141853383754453 0.2530416149365289 -0.5718620271995185 7.334755641719215
-1 -0.04031694502056116 -2.3174478369716587 -2.321718279302185 -2.0945501241859277 18.72319342071159
-1 -0.8562540002093 -3.8254160093774114 1.6617551121226724 -1.0827863841508534 12.502170687097752
-1 -0.4760256890186332 -1.2404540151798713 3.7672708232467276 -2.0945501241859277 18.72319342071159
