0
370 -56.01077469011977 -45.687425751112244 -41.785010460695446 -97.84471833034377 881.7062706968542
325 -46.65421242963408 -17.071992617995534 -17.705285331948076 -79.30546291724258 852.7711452369155
305 -82.05107628026258 -51.72072898217972 -0.4245941787357168 -82.86572036572662 95.41466661234999
275 -78.94993285022 -14.927861897192273 -33.58645215093178 -0.5238563158504377 37.76472765005578
196 -76.20740024397548 -32.78136135895542 -43.78353057392616 -34.17135307682025 345.5125467156438
194 -79.65668171236358 -28.462842683459456 -93.60826467235522 -40.61381391709826 307.34014483128556
177 -72.46232268174873 -20.463411098752886 -38.47060119095826 -71.90132479408089 48.91134250831974
167 -69.91871127087691 -22.63341007456259 -50.40865009685923 -64.79025078671391 740.1943215697064
162 -83.05194463026713 -45.67090396687532 -10.71000613045635 -91.81431956088572 338.502622618016
156 -87.32558676042818 -20.17508621864812 -43.77884473989161 -78.99946755052999 629.099368361339
154 -44.2155846047835 -26.98292954576125 -79.4992928780238 -69.62442229529137 291.3326065124523
154 -69.83517569552887 -15.939039331751985 -28.798400840519093 -65.10792084570107 910.4389198804082
154 -76.42041021883492 -30.63871144921235 -65.30974892558004 -97.9194125231082 184.28380334192917
151 -34.41065543477414 -5.804178216150319 -32.89161570298589 -81.50982748225859 460.19351435713065
137 -91.53936615072213 -13.657143383675958 -92.97407960838807 -28.357819728099074 150.81310876888276
136 -4.4743622584497444 -12.793797219621595 -36.191617056290724 -59.056048657189564 749.980822904989
135 -37.556345456022356 -21.98629771539963 -86.92761682429642 -64.28997263472343 256.37607424834096
134 -3.994590085477995 -8.971849311826006 -77.94419061534671 -52.017981827602554 882.4466770510253
133 -4.273878269120047 -27.830840016458794 -16.906570506684375 -90.53704797756905 388.7712602597736
132 -91.63789873315707 -30.943336035817737 -2.5603610564890573 -34.133647886043875 434.6769912641725
127 -88.09541308516864 -26.76136638961721 -32.496333813007595 -5.330460559288241 337.4380342204817
126 -81.30218337567773 -31.99593225976615 -10.311235901432852 -2.0009429782965213 458.1430008266567
111 -96.11639880038642 -74.93605439343122 -41.671273177354976 -92.09618802477507 263.98577775438406
111 -49.29328433908218 -26.845451898065207 -45.82062284557511 -31.486800504993454 445.1665044560925
110 -78.31188742237904 -3.5034562946562744 -29.681743835012114 -33.17054779041439 269.60155519231375
107 -53.34405989899484 -23.316367604761297 -28.11825310734862 -35.612587068453365 378.5482851640967
102 -83.06178838530363 -5.422048599200764 -99.29710155467858 -6.613478570088986 36.46827582313583
101 -84.41637224319071 -41.67500107917631 -51.22068305182186 -55.31472335822223 472.2188009658934
100 -12.6738667051618 -30.776345420319757 -22.250112744217574 -83.63909660637931 308.65786027619725
98 -23.180579877516408 -14.136614158404413 -16.224937226309763 -59.618934342075704 844.3313231482862
97 -29.426460353888558 -0.03773655525750996 -44.99264357077928 -44.4283566805831 833.6123509282152
95 -94.02293277010062 -41.715060295819995 -83.85714190031469 -34.09426185816797 62.510417186042446
92 -91.75255560574664 -53.60453866577322 -80.47078652074632 -21.17566028025746 605.1665998470123
92 -91.67689251398673 -19.282209403762536 -51.60435828229231 -4.052878283021258 138.95661612744635
91 -70.31606112840204 -37.191907518091014 -6.518213108066121 -16.972287450060833 914.4373523386803
91 -85.5279117807754 -19.907239454161996 -41.942475995117825 -46.988646991367446 995.5929062319698
88 -3.5400561392317798 -28.78746601704964 -46.06568937230118 -95.4727282754348 800.262787058875
87 -91.27188944512781 -91.13515383199909 -0.05459368318869906 -84.55031253532412 396.7802556745109
86 -83.09117722116196 -44.159078160052424 -50.14838519376288 -48.908100181710246 645.2714459701152
86 -9.369924108298306 -40.12730605410228 -20.696338876977705 -76.80220367341542 39.51066972099926
84 -65.87950532317649 -25.483091853307215 -23.964055678720328 -70.6221341971398 893.5403853122572
84 -93.39908565586269 -67.47697277754779 -19.74676206434384 -86.68393485600569 819.4647698372029
82 -80.846743967552 -52.70151060985256 -7.036763432981601 -56.285247584994224 137.5376035002288
82 -68.34139178873392 -25.82584233376474 -36.614816682540365 -21.786620734427515 765.6137620418336
79 -4.146730469124009 -23.463792714037055 -12.947073282078705 -45.371648869866775 395.6675289414656
79 -92.76626109757571 -77.57219381706442 -25.75289178079774 -55.10754606382767 54.97655066128371
78 -93.23204936672204 -45.34889359992709 -52.72137121735906 -25.371475720363563 260.6792094168706
77 -19.624413903448996 -36.65468703721317 -41.24999003475248 -89.21660805009917 528.2705386239685
77 -20.510855045367848 -12.689515525106657 -7.730444537286104 -93.68795042826436 342.4174760893902
76 -29.64995336213154 -89.19783907714756 -12.230315138632804 -93.2006424677085 679.9810525723368
76 -49.52158488369701 -1.5411182785187378 -4.440444780989367 -18.075391546696366 206.13943890652163
76 -71.49075661921835 -25.80587526790717 -85.53555161925122 -45.62366265303115 411.38494168884046
74 -15.700274366569005 -44.69604293525972 -10.2442390166064 -93.7381530942723 653.96540203816
74 -90.66134210026104 -40.322122124278025 -85.1791981288419 -67.40948158138531 809.7910860293424
74 -74.0211177726465 -96.49880372753941 -30.800062728848715 -90.33059023040076 9.64535922094123
74 -36.61500898314919 -23.869736962521884 -4.193543509489231 -51.59159014938756 535.4784556075487
73 -39.74053086991572 -3.4030888412686267 -27.703610344809817 -62.590757293033896 440.9580762241501
73 -56.48162781223473 -20.93539702756607 -33.01946278746283 -97.30244481271134 124.21818511699013
72 -31.547774318152648 -10.533095160498789 -17.747120289984537 -82.42903335701342 864.5034558949864
70 -41.11105925704535 -39.24743825540199 -12.938449402033541 -54.06068102880882 288.78792564032096
70 -1.2552475587996383 -6.5375864295996 -21.50408435559565 -25.20136689382882 427.1752035124451
70 -16.741907769157564 -8.67317274140774 -29.593550091423154 -74.99679592460171 192.18018102133107
69 -88.6126874683874 -53.18517300675572 -47.46601812249869 -18.85169390315137 141.73512124177313
68 -80.46162556067432 -58.446357404491934 -0.5053597852653411 -67.24932335925226 2.8135399520269333
65 -86.00935709646176 -5.153968904318901 -95.86861428459473 -84.2699246179384 709.5185443651864
63 -8.53657481266454 -35.711049688000045 -81.10576257161297 -37.42181033182306 571.8450127168186
63 -21.145295234244912 -56.62861675414075 -55.8764644240885 -97.61681001786593 156.13279191351393
63 -7.92694056563856 -25.65071050966158 -45.66571733099192 -84.48505578731186 650.4055648345591
62 -82.95369240368939 -97.82229579501579 -91.79202881748053 -92.8174499409134 465.0065642181874
62 -7.100589083332508 -2.4073899818380795 -24.425414154621023 -16.304537819465637 634.4598319718029
61 -22.915080955916935 -14.340783179009463 -51.639229249075115 -49.59271119537297 378.69206231831566
61 -38.206753428388886 -43.26897800348578 -69.91020971768464 -93.95030098704311 274.02370712291
60 -23.537925632188745 -11.828627207047376 -48.34447750485042 -33.49691856273657 225.6863396938218
59 -75.10289952449757 -36.859699259520475 -81.51724987044767 -3.008107286739019 618.0600673066436
58 -13.502339472346051 -46.851355277788606 -95.65171774491328 -71.72599265682449 451.32894820670555
57 -37.681417229226035 -45.50257269925566 -14.672972755906954 -52.16144986331667 503.2319436917496
56 -81.45263494714268 -19.899805842772153 -82.33665135094873 -84.44607740959417 641.4840220684584
56 -68.28202211196978 -28.891978756277453 -66.53830637238764 -28.740792490310568 872.9628177652241
55 -26.402705382333835 -3.9339418704504254 -25.451127748182103 -7.491829392744307 547.4385895889238
55 -28.069462156095582 -32.177259427303426 -36.46011631722457 -51.92928788569938 504.0245952248518
54 -25.379352961832453 -61.903257697306145 -32.339378440369345 -93.108828037245 613.5238715696736
54 -74.76717965832523 -95.79500092622838 -4.094740731121448 -75.52849097029176 617.6419005179558
54 -18.94548896815057 -17.66934507512589 -91.59940524791942 -35.704143652877306 65.66800280398888
54 -11.252932240271818 -7.843802323407573 -3.1433132502761794 -2.7027267894346636 778.3462150953558
54 -12.261221362275535 -44.35434861558299 -17.456202143973343 -73.0935712018942 790.6088361085493
52 -58.751890590220455 -73.48144914135796 -12.977272717573399 -73.83555304448616 205.6178894091676
52 -72.81369039816656 -81.43174867618251 -95.8469118921972 -50.227189724845935 560.1771797683109
52 -72.34499341858125 -85.00470813332981 -54.29906839169354 -64.69354447061346 912.8544386018044
51 -29.17122847916761 -84.74504960121409 -71.33472406038557 -75.88758534392565 619.2363401563208
50 -72.36595612560859 -64.69938362487076 -95.67061130299379 -28.26758886749596 442.17317929424115
50 -58.1318568150817 -52.31191447301641 -88.12287457576309 -59.03562922363213 431.3175631724719
49 -8.981033948398519 -98.73016626503706 -20.882985027097575 -94.73407986153191 709.9573341295816
49 -73.3483956134111 -59.786103384714096 -70.48205286731262 -16.40317234603002 108.70270276493154
48 -51.4190964862596 -57.39725427069189 -28.98384196611174 -52.10975686335536 879.9369828375162
46 -91.54106285265762 -89.46696339274081 -78.26577963105464 -14.387194590586205 496.81213964160185
46 -70.40099200190457 -93.50842531458788 -88.73348478738801 -99.61133818187709 877.1121051693005
45 -83.98084738138678 -75.72233490647632 -79.89879303722675 -58.49851797289877 659.3704323405939
45 -17.476092252544902 -34.832893869537415 -5.196686826909698 -61.135973169463085 610.7235422138781
45 -69.37801672912147 -44.760096750800535 -72.40952055156887 -2.6792250523960206 538.7515831455308
45 -43.32246101362263 -66.46290621687254 -81.01916697258272 -82.18662790016201 36.048506618806876
45 -74.31287323684487 -72.67489861754257 -34.01983813343064 -8.778817283740935 753.740674207773
45 -56.58104040551418 -74.68092340137332 -52.803619978069186 -57.27765563740953 283.71233149934005
44 -40.38232775540136 -51.45522471014166 -54.806463252798785 -49.55309748242256 873.7049580674637
43 -10.826643513513318 -30.368509117157544 -96.4127434432554 -20.163565249667045 912.6398332645583
41 -33.16294365423333 -37.14992512314515 -30.417682021323742 -37.56453246948437 588.4383839551391
41 -89.63132726632995 -76.49469025244508 -92.24290133194177 -45.770260465255305 688.8927784686639
41 -54.75867349969585 -34.302208810051866 -58.219410263104535 -36.992645896227984 913.1097454597794
40 -47.04331829865473 -90.43732318032687 -33.9001169308205 -53.55856458775008 717.1476164326084
40 -61.095960497688274 -74.51981144066023 -85.26710751589108 -55.88406130765669 203.50424420305535
40 -51.13873443013935 -93.90469515316727 -94.28192727149745 -54.160172754295246 671.9606415635717
39 -66.17932161756032 -48.478581624306536 -12.643455892045239 -12.18663068259923 685.7959886502307
39 -96.04246710082884 -66.0604734304954 -51.687823859791706 -60.23053104840981 817.1925447643231
39 -17.480709323419134 -49.6842251939028 -34.7873252689116 -25.419848932019278 818.8063130061643
38 -33.036370154143896 -85.81318534441338 -86.72682162651947 -57.62443636824969 329.4994623119896
37 -43.17071555529517 -89.64118446103457 -34.80184451406552 -72.15189092190528 898.2138700444425
37 -5.31590253797259 -28.302480551879228 -13.01956618733064 -32.46735178573739 976.1967775429405
37 -11.692125167921219 -14.091006456295233 -59.355333457850065 -7.258650803263734 444.6301370000276
37 -31.615394685327445 -69.40611263941933 -37.7193432539061 -75.27207585884423 144.9372868461416
37 -76.76477257569141 -11.39680684258829 -47.44462792090466 -91.17826136264539 571.3639194465707
36 -50.55783365467297 -35.00198597109522 -82.72218236060257 -41.48106482531334 753.4332912258527
36 -50.357349294790566 -22.82812720792316 -88.14878521613184 -15.817393161206354 226.355055460586
36 -58.80439578528349 -47.015409618315 -64.5860943581975 -33.64132652240032 66.58342962097153
36 -20.61664478811744 -77.67152699508875 -60.834243935329425 -76.71892798053662 610.6631577938442
35 -94.85769864000754 -61.10835024174581 -51.14490888909008 -24.864252274642993 744.9852833698288
35 -11.60056293853809 -74.24130508219673 -80.981423911192 -67.94507677606691 632.2635072031132
35 -81.84714754349253 -43.10247067464314 -95.94244175508145 -3.515955090910637 544.8055548765324
34 -78.13949918628171 -87.16308913390533 -71.24429997611654 -50.57839963623265 327.2505014723336
34 -43.241429782942845 -98.24740091753141 -80.1068428657535 -79.16053978128052 90.77284583321254
34 -49.210598672023764 -88.30553387534552 -65.46187153981234 -17.509071522051627 352.13415063757515
33 -74.4813419897114 -82.22219199145152 -96.93472010563539 -84.67195113246468 464.4871454564705
33 -73.32951482270421 -97.35360714368491 -8.992169563355304 -22.30540641769211 478.8377767737536
32 -99.223876301543 -68.08414313252061 -40.80885502615097 -13.900051583800462 438.56038126192544
32 -35.95350204731723 -56.70614844803142 -54.55970839072797 -24.405481204929174 332.1210760440193
32 -10.999321406694094 -65.59488604094554 -23.113726170254154 -98.85556076201073 882.2737958805463
32 -85.57904099266867 -83.90497845081501 -56.19529304032012 -79.34800173216064 930.3836830309573
32 -57.12319664403868 -93.65763944251921 -69.80638573460821 -70.87988178408892 106.2156819658222
32 -75.73799967391972 -87.92559944497937 -69.7417883640733 -35.373051708642095 957.9962924125729
31 -43.87911231769353 -48.15721352047766 -48.25608865878523 -46.15367955466848 63.0051386219509
31 -89.16535020043057 -57.42549059866037 -4.422695943514697 -4.039798847082537 985.2412277511669
31 -58.31413245177083 -88.62379057118184 -30.35645357085575 -83.01119040181155 229.85522290028214
30 -67.27544752285263 -80.30685664526843 -13.373598110148606 -42.99144541433053 627.3301958746251
30 -40.76880232855093 -39.664845224500446 -98.24494812197494 -35.19006626120519 716.4642577244828
30 -49.710555285927036 -94.23553630823257 -14.452136068292674 -48.98963469117109 253.9587382302706
29 -60.24072612049699 -28.444588934369733 -22.430023654608107 -91.21799941530949 2.0930225871045316
29 -19.3875888590415 -16.519276457590948 -53.50878030357038 -15.201725605782684 521.0970021913976
29 -65.48464132514184 -37.70359343913775 -78.50666804995674 -56.52760055351859 698.9979944050925
29 -94.2886237274702 -74.72094601760068 -59.995852713968986 -80.52951028129753 165.8626603040717
29 -3.0185901166745595 -25.173989806980032 -62.509344909088284 -34.67650777143854 293.64989702617095
28 -83.0992294969162 -95.29735327787367 -54.85954638612641 -82.89258654072859 396.48237420044205
28 -21.86530021837146 -29.398100718210017 -72.78618488036044 -17.31305849658972 678.8966803551158
-1 -82.05107628026258 -51.72072898217972 -0.4245941787357168 -69.16746706355812 37.76472765005578
-1 -76.42041021883492 -30.63871144921235 -48.34447750485042 -33.49691856273657 225.6863396938218
-1 -57.02708653248642 -22.63341007456259 -50.40865009685923 -64.79025078671391 443.4494663247135
-1 -69.83517569552887 -15.939039331751985 -28.798400840519093 -65.10792084570107 36.46827582313583
-1 -72.46232268174873 -20.463411098752886 -38.47060119095826 -2.0009429782965213 443.47366547455755
-1 -46.65421242963408 -30.63871144921235 -65.30974892558004 -97.9194125231082 184.28380334192917
-1 -4.273878269120047 -27.830840016458794 -16.906570506684375 -68.67008210144665 388.7712602597736
-1 -29.64995336213154 -89.19783907714756 -12.230315138632804 -93.2006424677085 411.38494168884046
-1 -76.20740024397548 -32.78136135895542 -43.78353057392616 -34.17135307682025 338.502622618016
-1 -44.2155846047835 -26.98292954576125 -77.94419061534671 -52.017981827602554 882.4466770510253
-1 -83.09117722116196 -44.159078160052424 -4.440444780989367 -18.075391546696366 206.13943890652163
-1 -69.91871127087691 -22.63341007456259 -65.30974892558004 -97.9194125231082 184.28380334192917
-1 -76.20740024397548 -32.78136135895542 -43.78353057392616 -34.17135307682025 150.81310876888276
-1 -56.01077469011977 -45.687425751112244 -41.785010460695446 -97.84471833034377 460.19351435713065
-1 -4.4743622584497444 -12.793797219621595 -36.191617056290724 -59.056048657189564 275.0373903101631
-1 -91.53936615072213 -13.657143383675958 -44.99264357077928 -44.4283566805831 833.6123509282152
-1 -3.994590085477995 -8.971849311826006 -0.05459368318869906 -84.55031253532412 396.7802556745109
-1 -87.32558676042818 -30.63871144921235 -65.30974892558004 -97.9194125231082 184.28380334192917
-1 -90.66134210026104 -40.322122124278025 -101.16952275315339 -67.40948158138531 809.7910860293424
-1 -49.29328433908218 -26.845451898065207 -45.82062284557511 -31.486800504993454 445.1665044560925
-1 -65.87950532317649 -25.483091853307215 -30.729314060596117 -70.6221341971398 893.5403853122572
-1 -49.52158488369701 -1.5411182785187378 -4.440444780989367 -18.075391546696366 206.13943890652163
-1 -78.94993285022 -27.830840016458794 -16.906570506684375 -90.53704797756905 388.7712602597736
-1 -88.09541308516864 -26.76136638961721 -12.230315138632804 -99.79067758221383 679.9810525723368
-1 -88.6126874683874 -53.18517300675572 -47.46601812249869 -18.85169390315137 141.73512124177313
-1 -56.01077469011977 -45.687425751112244 -53.8490945498891 -76.31639047422064 388.7712602597736
-1 -83.05194463026713 -45.67090396687532 -10.71000613045635 -91.81431956088572 338.502622618016
-1 -3.994590085477995 -8.971849311826006 -77.94419061534671 -52.017981827602554 359.81138625624834
-1 -69.91871127087691 -33.51178749413628 -79.4992928780238 -69.62442229529137 291.3326065124523
-1 -76.42041021883492 -30.63871144921235 -65.30974892558004 -97.9194125231082 184.28380334192917
-1 -93.66824102024226 -51.72072898217972 -15.643606511354958 -82.86572036572662 740.1943215697064
-1 -79.65668171236358 -77.57219381706442 -25.75289178079774 -55.10754606382767 54.97655066128371
-1 -84.41637224319071 -36.65468703721317 -41.24999003475248 -89.21660805009917 518.6878699804106
-1 -79.65668171236358 -28.462842683459456 -93.60826467235522 -40.61381391709826 150.81310876888276
-1 -91.67689251398673 -19.282209403762536 -6.518213108066121 -16.972287450060833 914.4373523386803
-1 -4.4743622584497444 1.2097084329578252 -55.63856342902542 -52.017981827602554 882.4466770510253
-1 -44.2155846047835 -46.085576149331665 -79.4992928780238 -94.19825287847334 291.3326065124523
-1 -72.46232268174873 -20.463411098752886 -16.906570506684375 -90.53704797756905 388.7712602597736
-1 -88.09541308516864 -26.76136638961721 -32.496333813007595 -5.330460559288241 62.510417186042446
-1 -83.05194463026713 -45.67090396687532 -10.71000613045635 -91.81431956088572 458.1430008266567
-1 -82.05107628026258 -20.17508621864812 -43.77884473989161 -78.99946755052999 629.099368361339
-1 -78.31188742237904 -3.5034562946562744 -29.681743835012114 -35.612587068453365 378.5482851640967
-1 -56.01077469011977 -45.687425751112244 -41.785010460695446 -91.81431956088572 338.502622618016
-1 -82.05107628026258 -51.72072898217972 -0.4245941787357168 -82.86572036572662 115.33044298361645
-1 -69.83517569552887 -15.939039331751985 -30.713521785323405 -65.10792084570107 910.4389198804082
-1 -49.29328433908218 -26.845451898065207 -45.82062284557511 -26.503122945621996 138.95661612744635
-1 -34.41065543477414 5.997827456469004 -32.89161570298589 -81.50982748225859 396.7802556745109
-1 -83.05194463026713 -45.67090396687532 -10.71000613045635 -108.26806559250714 338.502622618016
-1 -78.94993285022 -31.99593225976615 -10.311235901432852 -2.0009429782965213 458.1430008266567
-1 -56.01077469011977 -45.687425751112244 -41.785010460695446 -94.96714130590186 48.91134250831974
