100
130 78 -8 -90 86 -192 9 -93 -21 -33 -11 -95 -198 -198 -64 -22 -14 -171 -29 -77 -189 -202 365
113 78 8 -90 86 -142 -95 -122 -21 19 1 -95 -198 -198 -64 -22 -14 -171 -29 -50 -189 -213 365
107 78 8 -90 86 -142 -95 -122 -21 19 -11 -95 -198 -198 -64 -22 -14 -171 -29 -77 -189 -202 365
102 78 8 -90 80 -192 -13 -93 -21 -33 -11 -142 -198 -198 -64 -22 -14 -171 -29 -77 -189 -232 365
100 78 8 -90 86 -142 7 -93 -21 -33 -11 -95 -198 -198 -64 -22 -14 -171 -29 -77 -189 -263 365
98 78 8 -90 86 -142 7 -93 -21 -33 -11 -95 -205 -198 -64 -22 -14 -171 -29 -77 -189 -232 365
93 78 8 -90 86 -192 -13 -93 -21 -33 -11 -95 -198 -198 -64 -22 -14 -171 -29 -50 -189 -213 365
93 78 8 -90 86 -142 7 -93 -21 -33 -11 -95 -198 -198 -64 -22 -14 -171 -29 -77 -189 -232 365
93 78 -8 -90 86 -192 9 -93 -21 -33 -11 -95 -198 -198 -64 -22 -14 -171 -29 -77 -189 -232 365
91 78 -8 -90 86 -192 -95 -93 -21 -33 -11 -142 -198 -198 -64 -22 -14 -171 -29 -77 -189 -232 365
89 78 8 -90 86 -142 -52 -93 -21 -33 -11 -142 -198 -198 -64 -22 -14 -171 -29 -77 -189 -232 365
84 78 8 -90 86 -142 -95 -93 -21 -33 -11 -142 -198 -198 -64 -22 -14 -171 -29 -77 -189 -232 365
83 78 8 -90 80 -192 -13 -93 -21 -33 -11 -95 -198 -198 -64 -22 -14 -171 -29 -77 -189 -232 365
83 78 8 -90 86 -142 -13 -93 -21 -33 -11 -95 -198 -198 -64 -22 -14 -171 -29 -77 -189 -202 365
82 78 8 -90 80 -192 -13 -93 -21 -33 -11 -142 -198 -198 -64 -22 -14 -171 -29 -77 -189 -232 365
81 78 -8 -90 86 -192 -55 -93 -21 -33 -11 -95 -198 -198 -64 -22 -14 -171 -29 -50 -189 -213 365
80 78 8 -90 86 -192 -13 -93 -21 -33 -11 -95 -198 -198 -64 -22 -14 -171 -29 -77 -189 -202 365
80 78 8 -90 86 -142 -95 -122 -21 -30 -11 -95 -198 -198 -64 -22 -14 -171 -29 -77 -189 -202 365
80 78 8 -90 86 -192 -13 -93 -21 -33 -11 -95 -198 -198 -64 -22 -14 -171 -29 -50 -189 -232 365
79 78 8 -90 86 -142 -95 -122 -21 19 1 -95 -198 -198 -64 -22 -14 -171 -29 -77 -189 -232 365
78 78 8 -90 86 -142 -95 -93 -21 -33 -11 -142 -198 -198 -64 -22 -14 -171 -29 -77 -189 -232 365
78 78 -8 -90 86 -192 9 -93 -21 -33 -11 -95 -198 -198 -64 -22 -14 -171 -29 -77 -189 -232 365
77 78 8 -90 86 -142 -95 -122 -21 -30 -11 -89 -198 -198 -64 -22 -14 -213 -29 -50 -189 -213 365
77 78 8 -90 86 -192 -13 -93 -21 -33 0 -95 -198 -198 -64 -22 -14 -171 -29 -77 -189 -232 365
76 78 8 -90 80 -192 -13 -93 -21 -33 -11 -142 -198 -198 -64 -22 -14 -171 -29 -50 -189 -213 365
76 78 8 -90 86 -142 -13 -93 -36 -33 -11 -95 -198 -198 -64 -22 -14 -171 -29 -77 -226 -202 365
75 78 8 -90 86 -142 -13 -93 -21 -33 -11 -95 -198 -198 -64 -22 -14 -171 -29 -77 -189 -213 365
75 78 8 -90 80 -192 -13 -93 -21 -33 -11 -142 -198 -198 -64 -22 -14 -171 -29 -77 -189 -232 365
74 78 10 -90 86 -142 -95 -122 -1 -30 -11 -89 -198 -198 -64 -22 -14 -171 -29 -77 -189 -213 365
74 78 8 -90 86 -192 -13 -93 -21 -33 -11 -95 -198 -198 -64 -22 -14 -171 -29 -77 -189 -202 365
-1 78 8 -90 86 -142 -95 -122 -21 19 1 -95 -198 -198 -88 -22 -14 -201 -29 -77 -189 -208 365
-1 78 8 -90 86 -142 -95 -122 -21 19 -11 -95 -198 -198 -64 -22 -14 -171 -29 -77 -189 -202 365
-1 78 8 -90 86 -142 7 -93 -21 -33 -11 -95 -198 -198 -64 -22 -14 -171 -29 -77 -189 -232 365
-1 28 8 -90 80 -192 7 -93 -21 19 -11 -95 -198 -198 -64 -22 -14 -171 -29 -77 -189 -191 365
-1 78 8 -90 80 -192 -13 -93 -67 -33 -42 -142 -198 -198 -110 -22 -14 -171 -29 -77 -189 -213 365
-1 78 -8 -90 86 -142 7 -93 -21 -33 -11 -95 -198 -198 -64 -22 -14 -171 -29 -77 -189 -263 365
-1 78 8 -90 86 -142 -95 -122 -21 19 1 -122 -198 -198 -64 -22 -14 -171 -29 -50 -189 -213 365
-1 78 8 -90 86 -142 -95 -122 -21 19 -11 -95 -198 -198 -64 -22 -14 -171 -29 -77 -189 -202 365
-1 78 8 -90 86 -210 -13 -93 -21 -33 -11 -95 -198 -198 -64 -22 -14 -171 -29 -77 -189 -232 365
-1 78 8 -90 86 -192 -13 -93 -21 -33 -11 -95 -198 -198 -64 -22 -14 -171 -29 -77 -189 -263 365
-1 78 8 -90 86 -142 -95 -122 -21 -22 1 -95 -198 -198 -64 -22 -6 -171 -29 -50 -189 -213 365
-1 78 8 -90 80 -192 -13 -93 -21 2 -11 -142 -198 -198 -64 -22 -14 -171 -29 -77 -189 -246 365
-1 78 8 -90 62 -142 -95 -122 -21 19 1 -95 -167 -198 -64 -22 -14 -171 -29 -50 -189 -213 365
-1 78 24 -90 86 -192 9 -93 -21 -33 -11 -95 -198 -198 -64 -22 -14 -171 -29 -77 -189 -202 365
-1 78 8 -90 86 -142 -13 -93 -21 -33 -11 -95 -198 -198 -64 -22 -14 -171 -29 -77 -189 -263 365
-1 78 8 -90 86 -142 -95 -122 -21 19 -11 -95 -198 -198 -64 -22 -14 -171 -29 -77 -189 -202 365
-1 78 -8 -90 86 -192 9 -93 -21 -33 -11 -95 -198 -198 -64 -22 -14 -171 -29 -77 -189 -232 365
-1 78 8 -90 82 -142 7 -61 -21 -33 -11 -95 -205 -198 -64 -22 -14 -171 -29 -77 -189 -232 365
-1 78 -8 -90 86 -192 9 -93 -21 -33 -11 -95 -198 -198 -64 -22 -14 -171 -29 -77 -189 -202 365
-1 78 8 -90 86 -142 -95 -122 -21 19 1 -95 -198 -198 -64 -14 -14 -171 -29 -77 -189 -263 365
