370
559 -71.36393641254227 -23.919846335245843 -11.598224972666664 -54.96492049513574 45.45157068734294
511 -72.50797601703667 -24.147811082302677 -13.135546176444272 -54.7615484530737 46.500257687372496
480 -74.61066972650943 -24.154591766357953 -16.78078977158507 -55.95792908288097 56.36291418240893
475 -72.0660856575359 -23.568738990621267 -13.22927464204356 -55.35751768080182 49.67664421905217
472 -72.76823490252951 -23.21763164599669 -14.860324311420456 -55.7501148664679 53.90171775076141
469 -72.42766811742625 -24.19734712831322 -10.045252313852234 -57.088180783950456 48.133233501000376
460 -71.37072841845934 -22.236836247795395 -12.889949858132587 -54.06969031037815 48.37827308254697
444 -71.35738865661386 -23.434993577194277 -12.52157505281586 -57.10521731434533 50.68253845014878
431 -60.78320618439263 -24.09844774404823 -13.320940526493857 -58.124185166179124 47.25274675885359
430 -72.53436264728225 -23.584854014850425 -6.337891135324853 -56.878672237389026 47.9201155438212
428 -70.69818562012264 -23.627290160671166 -11.926794170541783 -56.65848774498485 46.26291633223902
428 -71.72648037201279 -24.01754831138222 -10.08188052889364 -57.39958023004064 48.10363094132806
427 -71.6222722988748 -24.05147922205101 -9.98764733880624 -54.545493645017416 44.462088806658
424 -72.93706055655797 -23.657787967981527 -6.3666936228478495 -58.15001580685555 49.755687890992384
422 -70.21989680804788 -23.691881588189013 -10.060903768889053 -55.168292537197786 44.402883687313384
421 -61.0976370546033 -22.607521876523844 -3.750078828697603 -52.29444855933668 50.18375265899209
418 -74.79605522602546 -24.603740576416342 -16.210188583999493 -54.354804368949615 48.5976316874316
414 -73.16857504926111 -24.086070038870087 -13.431335150239356 -56.67875465646081 52.233272561868496
413 -71.36733241550081 -23.07834129152062 -12.244087415399626 -54.517305402756946 46.91492188494495
410 -71.72648037201279 -24.01754831138222 -10.08188052889364 -57.39958023004064 48.10363094132806
403 -71.61627413370245 -23.606072087760793 -9.132342652933318 -45.53000055627508 47.09151593803011
403 -72.28492039704541 -24.24986758740183 -12.66859585082608 -58.75299960406538 47.59707997732421
400 -73.2330639359777 -24.34321503457543 -10.102857288898226 -59.630867922883496 51.80437819534275
400 -53.50833050024924 -23.548516593639675 -0.21285127547184413 -57.21681972259209 57.29445259198342
393 -72.87051997650718 -24.24551305843905 -2.5001901022787347 -57.1962081879786 49.15231794135762
392 -71.57847868230292 -23.67483477808527 -8.213798695868451 -56.65915417202667 47.079285789152884
391 -73.93176522467313 -25.101576054300434 -13.8678234424716 -63.43817820585403 55.68864084686431
391 -64.8503423535407 -22.710464158956388 -11.204347271156248 -53.620204897588785 46.39935875522873
391 -63.12848444566154 -24.031741112207875 -6.82740161631312 -58.437489249144654 50.666264575166906
390 -72.74863839107385 -24.514965630776075 -13.441951957154396 -59.65815877569722 44.0380765583504
390 -70.73137441542829 -23.893562725945344 -1.7018365614794009 -56.809654623228745 42.424879460194056
390 -72.96840497589531 -23.65185084243339 -14.145829730829906 -56.214434761464354 53.06749515631495
388 -68.68694360895736 -21.666527159408012 -7.287306381923361 -47.372077396081266 43.07305272600076
388 -69.43300369533452 -23.361386957439677 -7.009676766791127 -55.35982384374412 74.20123507023673
388 -73.0006494192536 -23.78042334028606 -12.481590800159342 -57.690491394675696 52.85304797305208
381 -73.11647101269212 -24.103035494204484 -13.384218555195655 -55.2517113639492 50.412501494533466
380 -69.42077578143673 -22.26276517506876 -7.962391621144081 -49.165431458315304 43.42031174616507
374 -62.96799930883775 -23.872931860976447 -5.12905179466204 -57.15250025327127 52.7138430464919
372 -69.77539790999091 -22.629772233627076 -14.83150578926182 -54.41287311406617 45.590782606264085
371 -74.60851090865573 -24.505013899907446 -16.58097728409866 -61.08007779516046 50.1026098303938
369 -72.7192459831817 -23.497278701666264 -14.429827863048391 -57.0268563299829 51.22283484303001
369 -72.98730306952585 -24.037219050801898 -14.189507372125867 -55.46142478900836 53.85552349401826
368 -69.8203362947423 -22.977323381628885 -9.011647695016567 -52.16686199775654 43.91159771673922
366 -72.74863839107385 -24.514965630776075 -13.441951957154396 -59.65815877569722 44.0380765583504
366 -73.44645299568968 -23.11822880764984 -2.6881349318434644 -59.211850829760635 51.37814228098439
365 -74.16574138659968 -24.198427044197985 -16.830698764708323 -57.43053942255764 59.425162418975845
365 -73.93586861134153 -23.411835881974703 -10.019762945507058 -58.38645231328648 51.25935242212339
365 -72.85360187871919 -23.737037215653185 -12.261708860994847 -51.48858629972668 53.89158501600609
365 -66.6832940655793 -24.818341453777837 -14.966157478001154 -57.92767109398374 42.58763559060446
365 -72.99069907248438 -23.195714007076674 -14.83536981485883 -55.013809696629565 52.37059363247795
364 -69.84047653198179 -23.735646229839674 6.583974215847439 -59.073815601440074 40.38767011373011
360 -71.9525455328708 -22.91084513132291 -9.61392049672872 -55.47418127388359 48.14919431318408
359 -72.83839276341806 -23.429312279116896 -14.240120336574027 -57.656398434846224 49.07279112287559
358 -58.32995628862207 -23.18409207011738 -9.51874468417991 -53.17071948479942 44.42044442791049
357 -71.61967521623248 -24.020686904124013 -7.418691368961836 -55.78560153815123 44.46256857378327
356 -72.22461154268616 -22.976382274784513 -14.994341334501845 -55.98242608390803 49.93133461302513
356 -70.73137441542829 -23.893562725945344 -1.7018365614794009 -56.809654623228745 42.424879460194056
355 -70.71779100001561 -23.090746395092044 -10.36462916953888 -53.51511808588924 43.55556464217558
355 -71.03445701929098 -22.93206320423328 -12.408372014337186 -55.3640890276815 47.320594707393
353 -72.3929438216948 -23.350354031064064 -10.097214947910606 -58.78847892395189 48.05418644964362
352 -67.83641239887 -23.259130029281785 -10.750014484307327 -56.83776188319028 47.930210224582666
351 -71.57952126642726 -24.04545492712928 -5.873544437665817 -56.9489177035896 45.27905648059722
351 -72.60009920294533 -23.565245124215632 -14.619535389522754 -56.39731422511957 53.37287856318442
350 -72.09905118672125 -22.93340604371315 -15.162137833289801 -56.79685152899154 47.94030490534413
350 -58.47115223253955 -23.95382777769168 -9.517644736836964 -58.451507705460465 48.676383934158295
349 -70.39575209994803 -22.24980071143208 -10.426170739638334 -38.98520140884263 45.89929241435602
348 -67.8583188499558 -24.020586272115814 -9.285501875908217 -58.405329514484244 48.37595980242115
348 -71.61967521623248 -24.020686904124013 -7.418691368961836 -55.78560153815123 44.46256857378327
347 -71.82120240301697 -23.984769544027586 -11.895239744497763 -57.84784043243355 51.15608339629803
347 -72.23755938154332 -24.266256971079148 -11.761916243024018 -58.52886950286893 46.07085374983923
346 -73.26126779901912 -24.31064444389928 -13.146034556446565 -55.87719229949513 48.35063131437983
346 -72.98503644570565 -23.920036354928833 -12.822963708095251 -53.37014883183794 52.152043255269774
345 -70.81183708308328 -24.16584481676581 -14.18099921847249 -57.8115989481442 42.97212007576665
344 -74.05451322796131 -22.80714533618278 -18.492593334341812 -60.76730322467504 53.68349343909318
343 -76.40516744660249 -26.20343003181312 -17.84602485343052 -64.09522427433502 39.16629946441058
341 -64.68359245847324 -20.960395258892998 -18.940843721578627 -48.88949686108384 41.08231743505832
341 -73.92078742231672 -24.424114467241438 -13.341917286498443 -60.35547285902198 50.953494012868276
340 -71.67137725285761 -23.811810199571507 -9.60711159091348 -51.464790393157855 47.59757343967909
339 -78.8107328155933 -27.207938163749738 -17.74295316414234 -68.87907030072313 70.04720013949863
339 -71.96879100574392 -23.72080235374812 -17.200071704614288 -60.004117210245624 43.88623084620027
338 -56.96142068455612 -23.433252875742554 -12.086290102571787 -51.760117913632456 46.008971716798335
335 -67.45174463326056 -22.326138423541003 -14.50087374523384 -52.028894699140814 43.241260307184035
335 -70.23679176505678 -23.128531197149123 3.916141136738805 -55.53568042952551 45.92684946925155
334 -70.64583056934083 -23.231571675528976 -11.160496337085966 -49.56869805297401 50.1612352023191
334 -70.57974203367365 -19.67929374513022 -8.545778647842383 -56.37970203689238 61.1524330057824
333 -74.42528422699338 -23.705442956299564 -17.35139095917065 -57.56105379681233 51.14056256326239
333 -74.79605522602546 -24.603740576416342 -16.210188583999493 -54.354804368949615 55.713835643470716
333 -51.0787281513186 -24.356156379544647 -11.743602135503316 -58.37316977982384 46.08565502967539
332 -72.35017189865107 -23.019358505855877 -14.82654483571389 -55.16800063882452 51.92236432070614
332 -71.6181193372172 -24.235481637982744 -13.235364162690779 -57.70676913242705 47.261914510470646
331 -70.1435891454812 -23.059666751243515 -11.831682332237792 -52.826399833308045 42.19711637159507
331 -71.6743763354438 -24.034513766716614 -10.034763933849941 -55.97253693752903 46.28285987399303
330 -51.41390241026243 -22.513957058423845 -7.148491574357244 -48.131454855996786 58.63714389811875
330 -70.1146781102824 -23.304742030172925 -10.423614716108967 -57.81312040357109 47.992198337113145
329 -72.07831747307853 -23.818166618450718 -8.162769237065547 -55.71208294120322 46.1911021752396
327 -74.7022830673406 -19.534920911628426 -16.395582934049074 -57.71744108205504 49.3501207589127
326 -73.0163418663865 -24.779081687776475 -16.409824556492502 -60.24524572765631 50.120945333627915
326 -64.70338891069423 -23.029716982498165 -1.1304734123052036 -55.657064570248664 46.52993673860998
326 -70.25926095743247 -23.302306771150025 -10.469220932779175 -54.4126748713707 45.08725702448912
326 -72.33177046428537 -23.837668139681874 -8.224287075870745 -57.774798018448095 48.92965941616022
325 -69.05279763375296 -22.99521394485113 -9.992693720800862 -57.99728611098493 41.33008155422999
325 -74.43244905076796 -25.105357032473933 -16.44359083043278 -62.2097691847778 49.26835325589442
325 -73.33975846583368 -23.730721921112632 -6.395496110370845 -59.421359376322066 51.59126023816357
324 -72.61099047680169 -23.95382777769168 -9.517644736836964 -58.451507705460465 48.676383934158295
323 -76.0218983757855 -25.775576599162584 -13.922905226520282 -64.25496911180332 60.92578916742069
323 -70.0821890553814 -23.62747484169251 -4.355756664135264 -56.08473923348643 58.31305726521539
321 -74.01371987273865 -25.127454626932064 -13.91683609611838 -59.32035895967622 41.814194135534294
319 -75.69236426261477 -26.330238307524503 -17.692232971953526 -62.827144487340675 37.11612739062738
318 -73.08339182224239 -23.42028841210587 -14.550069221066039 -54.21224733966388 48.487952384989285
318 -65.99628790197445 -23.67808883573736 -12.875144650417814 -57.85978094335174 49.13704436013064
316 -70.89376641496008 -23.454573457279096 -10.34852753184113 -56.03752208916988 58.27409023424567
316 -68.32619173210858 -22.340598806320557 -18.07045771309646 -54.44680703566473 42.484274140629296
315 -72.4741398214607 -23.13085939673094 -14.42056043309147 -43.34630467656985 55.97879183666943
314 -73.34020180787348 -24.808270842538256 -13.654887699812999 -61.54816849077562 49.86335870260736
313 -68.81752131722095 -23.33228395432701 -7.900432241080464 -55.79109142937816 44.343678567968766
312 -71.49350127608089 -22.921454167778094 -11.011146255532953 -49.79984543332661 47.73489451028854
312 -65.44860597172253 -23.858275036461972 -13.182410409243916 -55.05953306693776 48.08845095321233
311 -61.95204130009863 -22.899158652535878 -5.319511007555089 -48.10101056571736 51.59687250316972
310 -71.94749487997154 -23.27139578301123 -0.16694455000938735 -59.92055941305756 47.03558177641165
309 -72.74863839107385 -24.514965630776075 -13.441951957154396 -59.65815877569722 44.0380765583504
309 -53.074592582945556 -23.72103965979251 -0.9573439184756225 -57.01323717291042 49.85966602608874
307 -73.34020180787348 -24.808270842538256 0.5747194165711775 -61.54816849077562 49.86335870260736
306 -71.74716263703327 -24.084166711321366 0.53727364021616 -58.884283580903485 78.5360270586585
306 -74.7022830673406 -19.534920911628426 -16.395582934049074 -57.71744108205504 49.3501207589127
306 -61.864113654148554 -23.620199090914344 -5.136877522180448 -56.19255612989494 50.8486681396484
306 -68.78825510874674 -24.188972880441945 -10.855014539380349 -59.11628902421587 51.40822643844285
305 -71.13198715645532 -23.225256380988426 -6.411147565407665 -57.501471129569396 47.86091042447658
305 -71.15947399738457 -23.31264381595108 -12.611520801089426 -55.98257203309466 46.171594296328756
305 -71.26201815053238 -23.572368932201577 -14.136728873208108 -57.035515944881695 44.81442958230724
305 -71.37712972766506 -23.63836780151972 -8.199397452106954 -56.023482387293406 46.161499615567294
305 -73.40319429392436 -23.828674470206877 -6.259976523892896 -57.79133025063254 50.20583518174051
304 -68.81752131722095 -23.33228395432701 -10.134160198971866 -55.79109142937816 44.343678567968766
304 -49.32781059730796 -24.429090332675752 -11.772404623026311 -50.58312993617071 47.92122737684657
303 -70.15460795391608 -22.85900319072951 -8.637476860364801 -50.95878552054934 43.767570766329385
303 -75.17178281809043 -25.45063744710811 -16.45888969624199 -63.41830918285677 42.42313169670995
303 -67.01734880558064 -23.132654922252684 -5.058386225772726 -55.22223218309611 49.96972027499224
302 -72.24040816589907 -24.17378126188314 -11.939330235141792 -54.97365042151792 45.4434654351942
302 -68.64611058262118 -23.03089232669034 -3.9584497646932 -55.55135515029045 63.95169590932103
302 -69.59945363514692 -23.205152567431185 -6.98180005250884 -55.456589140022146 60.88864368292127
302 -71.54860439523605 -23.127192279588808 -11.485915193513113 -55.734635270209395 48.240952011937516
302 -71.52914478573297 -23.560596933652953 -12.15051205273154 -56.412345486022005 46.73783740509449
301 -75.45489200115728 -25.070672103731443 -16.45254549871607 -62.837960914857334 58.993752522421374
300 -72.95145017596865 -25.704172649761027 -1.3274766763651051 -62.692685997672484 47.6050397008792
300 -73.78214506427749 -22.112986442141356 -15.535256447709974 -55.052459617708756 51.249674719096504
299 -71.42063064746581 -23.362984620145163 -5.257736040925259 -48.41143229023555 52.65483600532866
299 -72.06764338133756 -21.44815393453405 -11.7026298504201 -56.53863246289958 61.775677914574715
299 -68.28841136277674 -23.364006235169306 -0.6577779979394727 -55.50989256381472 47.2514948482784
298 -71.35220623247629 -22.966882676959486 -10.812377677183802 -56.21981325308157 45.684547372325184
298 -67.9961110117771 -24.981882757176116 -12.32834594606032 -64.78273807904196 42.32716855363681
298 -69.53700846606768 -23.188808822796005 -12.24426054202004 -53.28719417207911 43.85167455692102
-1 -52.76439692302131 -22.964358917992204 -11.47542681351082 -54.61899142378797 46.39057838493018
-1 -71.5469063937568 -23.547944801451422 -11.162983972146634 -53.40082884886723 47.509276413136504
-1 -53.553441617054204 -24.086070038870087 -13.431335150239356 -56.67875465646081 52.233272561868496
-1 -73.55017013696713 -24.59382304658526 -13.649579296355478 -49.74424643154595 53.9609567043664
-1 -71.36405853753661 -22.835914912494836 -12.705762455474224 -55.587453812361744 49.530405766347876
-1 -55.6557819527014 -23.576796502735846 -9.783582888684206 -56.11809495909542 48.79837988143669
-1 -67.04416806354384 -22.90161794180026 -9.292724321778216 -53.654129127983126 51.27717314573502
-1 -71.65247952715785 -23.846191544733745 -9.147839612381045 -57.02936720103365 47.59145836524047
-1 -73.98231513764328 -24.344905307643216 -14.820761867119424 -55.51677951270521 66.97644237575844
-1 -74.27121747559127 -24.628083910329195 -8.839662526607468 -59.698053644367505 56.025777514636616
-1 -72.93255470188299 -24.30900056249028 -13.413085256175027 -57.45493506982321 67.97491867284906
-1 -71.71840703799762 -22.902787619208333 -13.059612250088072 -54.713603995589985 49.02745865079957
-1 -66.23248473505205 -22.84293158402223 -7.997083122048615 -53.405876981046816 48.549337271968525
-1 -73.16857504926111 -24.086070038870087 -13.431335150239356 -56.67875465646081 52.233272561868496
-1 -65.88820464215587 -23.151160438883608 -6.103439808011688 -52.64438133372355 47.89929335444744
-1 -71.54193451431333 -23.72627094428825 -11.30172779085475 -57.25239877219299 49.39308469573842
-1 -71.36405853753661 -22.835914912494836 -12.705762455474224 -55.587453812361744 49.530405766347876
-1 -71.93595621478947 -24.03382870877426 -12.366885574555468 -54.86323447410472 45.975914187357716
-1 -70.21989680804788 -23.691881588189013 -10.060903768889053 -42.319897010043476 44.402883687313384
-1 -69.69256461454 -22.64690866003959 -9.607050276232572 -52.01528257053306 68.3420839184215
-1 -73.16857504926111 -24.086070038870087 -13.431335150239356 -56.67875465646081 52.233272561868496
-1 -71.25240860254664 -23.97087458779542 -11.364749809857567 -56.96064607063158 45.999981832318795
-1 -71.54520839227753 -23.968697323314032 -10.840052750780153 -56.18225036258819 46.7776008143355
-1 -70.3984700539384 -23.64061664634276 -9.303950869728896 -55.162372169439934 59.826402878789835
-1 -65.4365174822971 -22.61864705507546 -9.29079230897971 -53.35366083670142 66.65785241633216
-1 -71.8395129524418 -23.464196721352565 -9.84790051281118 -56.436880751962114 48.12641262725607
-1 -74.61066972650943 -24.154591766357953 -16.78078977158507 -55.95792908288097 56.36291418240893
-1 -54.75320317070506 -23.880411731093005 -9.875456089021753 -56.700863585402374 50.084094692762925
-1 -72.27966642771639 -23.854633595016267 -8.177170480827044 -56.34775472593648 47.10888834882519
-1 -71.17382427456536 -23.74981740685307 -5.417089607206359 -51.16982758975191 44.75819769911209
-1 -71.939352217748 -23.192323665049038 -13.01274801728843 -54.415619381725925 47.43926538495973
-1 -71.38213563882927 -23.598014575646218 -12.578034406292671 -56.00800271289334 47.9697802756456
-1 -72.76823490252951 -23.21763164599669 -14.860324311420456 -55.7501148664679 53.90171775076141
-1 -71.9525455328708 -22.91084513132291 -9.61392049672872 -55.47418127388359 48.14919431318408
-1 -72.98402919156165 -23.794792671776115 -14.651182412200466 -56.53157319861315 53.522726316278856
-1 -70.49962723186982 -22.968799976577017 0.052837227173288426 -52.912292815170986 45.24979876765897
-1 -67.8314235464719 -23.808297563529152 -6.582646375818986 -54.13588007578911 52.503254030424586
-1 -71.16022895949872 -23.83938469136109 -10.957220754674012 -55.601990695001135 45.36250256944851
-1 -72.1521964860294 -23.368064629751075 -4.24486791482608 -56.33366060480625 48.33530488796867
-1 -73.7135045928094 -24.25453574404863 -14.988366660577444 -37.5047126059117 53.887896866677835
-1 -63.02134657376574 -23.56668530424505 -3.2753712053983484 -57.04774597999056 52.60728406790231
-1 -71.54193451431333 -23.72627094428825 -11.30172779085475 -57.25239877219299 49.39308469573842
-1 -52.99218306995235 -18.43227929236626 -13.320940526493857 -58.124185166179124 47.25274675885359
-1 -71.91276577936702 -23.475477177547685 -12.62200918109172 -57.09821587951609 48.02196792333609
-1 -70.45904121408526 -23.65958587443009 -10.993848969715419 -55.91339014109132 45.3329000097762
-1 -53.50833050024924 -23.548516593639675 -0.21285127547184413 -45.11251189809765 57.29445259198342
-1 -61.875602746615186 -23.98568980251234 -9.224996160577948 -57.638342709725194 49.983294902672746
-1 -66.60543715090944 -24.147897436180724 -11.683096420173046 -57.60618297506479 47.69299012992698
-1 -66.42464592096427 -23.83359336733475 -13.275107584268708 -56.74085142349047 48.464695488952884
-1 -66.91333503289209 -23.82951563643952 -9.37709789342745 -57.54798849706475 48.46459045370297
